digraph Tree {
node [shape=box] ;
0 [label="CGPA <= 8.63\nmse = 0.021\nsamples = 300\nvalue = 0.719"] ;
1 [label="CGPA <= 8.035\nmse = 0.012\nsamples = 151\nvalue = 0.615"] ;
0 -> 1 [labeldistance=2.5, labelangle=45, headlabel="True"] ;
3 [label="GRE Score <= 307.5\nmse = 0.01\nsamples = 57\nvalue = 0.527"] ;
1 -> 3 ;
7 [label="CGPA <= 7.665\nmse = 0.008\nsamples = 40\nvalue = 0.497"] ;
3 -> 7 ;
11 [label="mse = 0.005\nsamples = 19\nvalue = 0.457"] ;
7 -> 11 ;
12 [label="SOP <= 2.25\nmse = 0.007\nsamples = 21\nvalue = 0.532"] ;
7 -> 12 ;
37 [label="mse = 0.004\nsamples = 11\nvalue = 0.55"] ;
12 -> 37 ;
38 [label="mse = 0.01\nsamples = 10\nvalue = 0.512"] ;
12 -> 38 ;
8 [label="mse = 0.009\nsamples = 17\nvalue = 0.599"] ;
3 -> 8 ;
4 [label="CGPA <= 8.315\nmse = 0.006\nsamples = 94\nvalue = 0.668"] ;
1 -> 4 ;
17 [label="Research <= 0.5\nmse = 0.007\nsamples = 40\nvalue = 0.644"] ;
4 -> 17 ;
19 [label="CGPA <= 8.17\nmse = 0.006\nsamples = 27\nvalue = 0.623"] ;
17 -> 19 ;
33 [label="mse = 0.005\nsamples = 13\nvalue = 0.642"] ;
19 -> 33 ;
34 [label="mse = 0.006\nsamples = 14\nvalue = 0.606"] ;
19 -> 34 ;
20 [label="mse = 0.006\nsamples = 13\nvalue = 0.686"] ;
17 -> 20 ;
18 [label="GRE Score <= 307.5\nmse = 0.005\nsamples = 54\nvalue = 0.686"] ;
4 -> 18 ;
25 [label="mse = 0.004\nsamples = 10\nvalue = 0.653"] ;
18 -> 25 ;
26 [label="LOR  <= 3.25\nmse = 0.005\nsamples = 44\nvalue = 0.693"] ;
18 -> 26 ;
27 [label="mse = 0.006\nsamples = 22\nvalue = 0.676"] ;
26 -> 27 ;
28 [label="mse = 0.004\nsamples = 22\nvalue = 0.71"] ;
26 -> 28 ;
2 [label="CGPA <= 9.055\nmse = 0.008\nsamples = 149\nvalue = 0.824"] ;
0 -> 2 [labeldistance=2.5, labelangle=-45, headlabel="False"] ;
5 [label="Research <= 0.5\nmse = 0.005\nsamples = 74\nvalue = 0.756"] ;
2 -> 5 ;
13 [label="LOR  <= 3.75\nmse = 0.005\nsamples = 31\nvalue = 0.727"] ;
5 -> 13 ;
29 [label="GRE Score <= 317.5\nmse = 0.006\nsamples = 20\nvalue = 0.712"] ;
13 -> 29 ;
31 [label="mse = 0.002\nsamples = 10\nvalue = 0.736"] ;
29 -> 31 ;
32 [label="mse = 0.009\nsamples = 10\nvalue = 0.688"] ;
29 -> 32 ;
30 [label="mse = 0.001\nsamples = 11\nvalue = 0.754"] ;
13 -> 30 ;
14 [label="TOEFL Score <= 107.5\nmse = 0.004\nsamples = 43\nvalue = 0.778"] ;
5 -> 14 ;
15 [label="mse = 0.005\nsamples = 14\nvalue = 0.733"] ;
14 -> 15 ;
16 [label="University Rating <= 3.5\nmse = 0.002\nsamples = 29\nvalue = 0.799"] ;
14 -> 16 ;
21 [label="mse = 0.002\nsamples = 19\nvalue = 0.782"] ;
16 -> 21 ;
22 [label="mse = 0.0\nsamples = 10\nvalue = 0.832"] ;
16 -> 22 ;
6 [label="CGPA <= 9.185\nmse = 0.003\nsamples = 75\nvalue = 0.891"] ;
2 -> 6 ;
9 [label="University Rating <= 3.5\nmse = 0.001\nsamples = 30\nvalue = 0.842"] ;
6 -> 9 ;
35 [label="mse = 0.001\nsamples = 10\nvalue = 0.819"] ;
9 -> 35 ;
36 [label="mse = 0.001\nsamples = 20\nvalue = 0.854"] ;
9 -> 36 ;
10 [label="CGPA <= 9.345\nmse = 0.001\nsamples = 45\nvalue = 0.924"] ;
6 -> 10 ;
23 [label="mse = 0.001\nsamples = 14\nvalue = 0.896"] ;
10 -> 23 ;
24 [label="mse = 0.0\nsamples = 31\nvalue = 0.936"] ;
10 -> 24 ;
}