digraph Tree {
node [shape=box] ;
0 [label="CGPA <= 8.845\nmse = 0.021\nsamples = 300\nvalue = 0.731"] ;
1 [label="CGPA <= 8.035\nmse = 0.011\nsamples = 186\nvalue = 0.648"] ;
0 -> 1 [labeldistance=2.5, labelangle=45, headlabel="True"] ;
3 [label="GRE Score <= 306.5\nmse = 0.01\nsamples = 51\nvalue = 0.547"] ;
1 -> 3 ;
7 [label="CGPA <= 7.67\nmse = 0.007\nsamples = 29\nvalue = 0.498"] ;
3 -> 7 ;
15 [label="mse = 0.003\nsamples = 14\nvalue = 0.456"] ;
7 -> 15 ;
16 [label="mse = 0.008\nsamples = 15\nvalue = 0.537"] ;
7 -> 16 ;
8 [label="GRE Score <= 313.5\nmse = 0.006\nsamples = 22\nvalue = 0.611"] ;
3 -> 8 ;
17 [label="mse = 0.005\nsamples = 12\nvalue = 0.574"] ;
8 -> 17 ;
18 [label="mse = 0.004\nsamples = 10\nvalue = 0.655"] ;
8 -> 18 ;
4 [label="CGPA <= 8.63\nmse = 0.006\nsamples = 135\nvalue = 0.686"] ;
1 -> 4 ;
9 [label="LOR  <= 3.25\nmse = 0.006\nsamples = 93\nvalue = 0.666"] ;
4 -> 9 ;
13 [label="GRE Score <= 316.5\nmse = 0.007\nsamples = 51\nvalue = 0.644"] ;
9 -> 13 ;
21 [label="CGPA <= 8.205\nmse = 0.007\nsamples = 39\nvalue = 0.634"] ;
13 -> 21 ;
25 [label="mse = 0.007\nsamples = 13\nvalue = 0.608"] ;
21 -> 25 ;
26 [label="GRE Score <= 310.5\nmse = 0.007\nsamples = 26\nvalue = 0.647"] ;
21 -> 26 ;
35 [label="mse = 0.003\nsamples = 12\nvalue = 0.662"] ;
26 -> 35 ;
36 [label="mse = 0.009\nsamples = 14\nvalue = 0.633"] ;
26 -> 36 ;
22 [label="mse = 0.006\nsamples = 12\nvalue = 0.677"] ;
13 -> 22 ;
14 [label="SOP <= 3.25\nmse = 0.004\nsamples = 42\nvalue = 0.692"] ;
9 -> 14 ;
31 [label="mse = 0.002\nsamples = 17\nvalue = 0.71"] ;
14 -> 31 ;
32 [label="CGPA <= 8.41\nmse = 0.005\nsamples = 25\nvalue = 0.68"] ;
14 -> 32 ;
37 [label="mse = 0.005\nsamples = 12\nvalue = 0.666"] ;
32 -> 37 ;
38 [label="mse = 0.004\nsamples = 13\nvalue = 0.694"] ;
32 -> 38 ;
10 [label="CGPA <= 8.74\nmse = 0.004\nsamples = 42\nvalue = 0.731"] ;
4 -> 10 ;
29 [label="GRE Score <= 316.5\nmse = 0.005\nsamples = 24\nvalue = 0.717"] ;
10 -> 29 ;
33 [label="mse = 0.003\nsamples = 13\nvalue = 0.702"] ;
29 -> 33 ;
34 [label="mse = 0.007\nsamples = 11\nvalue = 0.735"] ;
29 -> 34 ;
30 [label="mse = 0.002\nsamples = 18\nvalue = 0.748"] ;
10 -> 30 ;
2 [label="CGPA <= 9.225\nmse = 0.006\nsamples = 114\nvalue = 0.867"] ;
0 -> 2 [labeldistance=2.5, labelangle=-45, headlabel="False"] ;
5 [label="SOP <= 3.75\nmse = 0.005\nsamples = 62\nvalue = 0.818"] ;
2 -> 5 ;
11 [label="mse = 0.006\nsamples = 19\nvalue = 0.764"] ;
5 -> 11 ;
12 [label="University Rating <= 4.5\nmse = 0.002\nsamples = 43\nvalue = 0.842"] ;
5 -> 12 ;
19 [label="TOEFL Score <= 110.5\nmse = 0.002\nsamples = 29\nvalue = 0.826"] ;
12 -> 19 ;
27 [label="mse = 0.003\nsamples = 12\nvalue = 0.803"] ;
19 -> 27 ;
28 [label="mse = 0.001\nsamples = 17\nvalue = 0.841"] ;
19 -> 28 ;
20 [label="mse = 0.001\nsamples = 14\nvalue = 0.876"] ;
12 -> 20 ;
6 [label="CGPA <= 9.47\nmse = 0.001\nsamples = 52\nvalue = 0.926"] ;
2 -> 6 ;
23 [label="mse = 0.0\nsamples = 29\nvalue = 0.91"] ;
6 -> 23 ;
24 [label="mse = 0.0\nsamples = 23\nvalue = 0.945"] ;
6 -> 24 ;
}